<?xml version="1.0"?>
<opencv_storage>
<cascade>
  <stageType>BOOST</stageType>
  <featureType>HAAR</featureType>
  <height>24</height>
  <width>48</width>
  <stageParams>
    <boostType>GAB</boostType>
    <minHitRate>9.9500000476837158e-01</minHitRate>
    <maxFalseAlarm>5.0000000000000000e-01</maxFalseAlarm>
    <weightTrimRate>9.4999998807907104e-01</weightTrimRate>
    <maxDepth>1</maxDepth>
    <maxWeakCount>100</maxWeakCount></stageParams>
  <featureParams>
    <maxCatCount>0</maxCatCount>
    <featSize>1</featSize>
    <mode>BASIC</mode></featureParams>
  <stageNum>20</stageNum>
  <stages>
    <!-- stage 0 -->
    <_>
      <maxWeakCount>5</maxWeakCount>
      <stageThreshold>-1.1820218563079834e+00</stageThreshold>
      <weakClassifiers>
        <_>
          <internalNodes>
            0 -1 96 -5.9419274330139160e-02</internalNodes>
          <leafValues>
            5.9595960378646851e-01 -6.9911503791809082e-01</leafValues></_>
        <_>
          <internalNodes>
            0 -1 99 -5.3525954484939575e-02</internalNodes>
          <leafValues>
            5.2321398258209229e-01 -4.1310483217239380e-01</leafValues></_>
        <_>
          <internalNodes>
            0 -1 83 -1.3199534732848406e-03</internalNodes>
          <leafValues>
            4.8988696932792664e-01 -3.9671212434768677e-01</leafValues></_>
        <_>
          <internalNodes>
            0 -1 177 1.3337925076484680e-02</internalNodes>
          <leafValues>
            -2.8378763794898987e-01 7.3022013902664185e-01</leafValues></_>
        <_>
          <internalNodes>
            0 -1 133 9.3917017802596092e-03</internalNodes>
          <leafValues>
            -2.5050720572471619e-01 6.1069780588150024e-01</leafValues></_></weakClassifiers></_>
    <!-- stage 1 -->
    <_>
      <maxWeakCount>7</maxWeakCount>
      <stageThreshold>-8.7594753503799438e-01</stageThreshold>
      <weakClassifiers>
        <_>
          <internalNodes>
            0 -1 91 -4.0923882275819778e-02</internalNodes>
          <leafValues>
            1.8796992301940918e-01 -6.7464113235473633e-01</leafValues></_>
        <_>
          <internalNodes>
            0 -1 110 -3.6846451461315155e-02</internalNodes>
          <leafValues>
            5.8040362596511841e-01 -2.9494991898536682e-01</leafValues></_>
        <_>
          <internalNodes>
            0 -1 62 -5.6706247851252556e-03</internalNodes>
          <leafValues>
            4.3479064106941223e-01 -3.7254449725151062e-01</leafValues></_>
        <_>
          <internalNodes>
            0 -1 149 5.6148564908653498e-04</internalNodes>
          <leafValues>
            1.5151548385620117e-01 -9.3331915140151978e-01</leafValues></_>
        <_>
          <internalNodes>
            0 -1 186 3.9470498450100422e-04</internalNodes>
          <leafValues>
            1.6338573396205902e-01 -7.6460868120193481e-01</leafValues></_>
        <_>
          <internalNodes>
            0 -1 8 -1.4776377007365227e-02</internalNodes>
          <leafValues>
            4.4871106743812561e-01 -2.7939859032630920e-01</leafValues></_>
        <_>
          <internalNodes>
            0 -1 80 2.1048547700047493e-02</internalNodes>
          <leafValues>
            -2.2244460880756378e-01 5.7922536134719849e-01</leafValues></_></weakClassifiers></_>
    <!-- stage 2 -->
    <_>
      <maxWeakCount>11</maxWeakCount>
      <stageThreshold>-1.3661088943481445e+00</stageThreshold>
      <weakClassifiers>
        <_>
          <internalNodes>
            0 -1 131 -9.2813476920127869e-02</internalNodes>
          <leafValues>
            3.7500000000000000e-01 -5.7700204849243164e-01</leafValues></_>
        <_>
          <internalNodes>
            0 -1 0 -1.1325616389513016e-02</internalNodes>
          <leafValues>
            5.3188800811767578e-01 -2.2459535300731659e-01</leafValues></_>
        <_>
          <internalNodes>
            0 -1 16 -5.9775598347187042e-03</internalNodes>
          <leafValues>
            4.3215584754943848e-01 -2.3648919165134430e-01</leafValues></_>
        <_>
          <internalNodes>
            0 -1 150 -4.1665816679596901e-03</internalNodes>
          <leafValues>
            -5.7501846551895142e-01 1.7772993445396423e-01</leafValues></_>
        <_>
          <internalNodes>
            0 -1 52 -4.9586094915866852e-02</internalNodes>
          <leafValues>
            4.0748655796051025e-01 -2.4075716733932495e-01</leafValues></_>
        <_>
          <internalNodes>
            0 -1 67 -4.2951993644237518e-02</internalNodes>
          <leafValues>
            4.5137390494346619e-01 -2.5555852055549622e-01</leafValues></_>
        <_>
          <internalNodes>
            0 -1 47 -9.5605850219726563e-04</internalNodes>
          <leafValues>
            3.9975348114967346e-01 -2.5393402576446533e-01</leafValues></_>
        <_>
          <internalNodes>
            0 -1 164 -2.9108638409525156e-04</internalNodes>
          <leafValues>
            -5.2593737840652466e-01 1.9546589255332947e-01</leafValues></_>
        <_>
          <internalNodes>
            0 -1 143 -1.1064999271184206e-03</internalNodes>
          <leafValues>
            -5.3682178258895874e-01 1.8695634603500366e-01</leafValues></_>
        <_>
          <internalNodes>
            0 -1 116 -6.8472450948320329e-05</internalNodes>
          <leafValues>
            -4.8317980766296387e-01 2.2565552592277527e-01</leafValues></_>
        <_>
          <internalNodes>
            0 -1 161 -1.8070432124659419e-03</internalNodes>
          <leafValues>
            3.2515043020248413e-01 -3.2338997721672058e-01</leafValues></_></weakClassifiers></_>
    <!-- stage 3 -->
    <_>
      <maxWeakCount>10</maxWeakCount>
      <stageThreshold>-1.0161658525466919e+00</stageThreshold>
      <weakClassifiers>
        <_>
          <internalNodes>
            0 -1 41 -7.2584554553031921e-02</internalNodes>
          <leafValues>
            4.0350878238677979e-01 -5.6680160760879517e-01</leafValues></_>
        <_>
          <internalNodes>
            0 -1 78 1.5389006584882736e-02</internalNodes>
          <leafValues>
            4.1669365018606186e-02 -9.2991733551025391e-01</leafValues></_>
        <_>
          <internalNodes>
            0 -1 120 5.5045306682586670e-02</internalNodes>
          <leafValues>
            1.1825978755950928e-01 -1.</leafValues></_>
        <_>
          <internalNodes>
            0 -1 63 7.3092815000563860e-04</internalNodes>
          <leafValues>
            -2.6290264725685120e-01 4.2358890175819397e-01</leafValues></_>
        <_>
          <internalNodes>
            0 -1 200 -1.9334950484335423e-03</internalNodes>
          <leafValues>
            5.3604567050933838e-01 -1.8267531692981720e-01</leafValues></_>
        <_>
          <internalNodes>
            0 -1 59 2.2132016718387604e-02</internalNodes>
          <leafValues>
            -1.4600934088230133e-01 6.5589547157287598e-01</leafValues></_>
        <_>
          <internalNodes>
            0 -1 51 1.2785300612449646e-01</internalNodes>
          <leafValues>
            1.1432547867298126e-01 -1.</leafValues></_>
        <_>
          <internalNodes>
            0 -1 102 1.1020061559975147e-02</internalNodes>
          <leafValues>
            -2.8184726834297180e-01 3.6504936218261719e-01</leafValues></_>
        <_>
          <internalNodes>
            0 -1 20 -1.3567081093788147e-01</internalNodes>
          <leafValues>
            4.1725009679794312e-01 -2.3121148347854614e-01</leafValues></_>
        <_>
          <internalNodes>
            0 -1 98 -5.9000506997108459e-02</internalNodes>
          <leafValues>
            3.9134827256202698e-01 -2.6586940884590149e-01</leafValues></_></weakClassifiers></_>
    <!-- stage 4 -->
    <_>
      <maxWeakCount>9</maxWeakCount>
      <stageThreshold>-1.1199682950973511e+00</stageThreshold>
      <weakClassifiers>
        <_>
          <internalNodes>
            0 -1 21 -4.4253416359424591e-02</internalNodes>
          <leafValues>
            4.3859648704528809e-01 -5.7085019350051880e-01</leafValues></_>
        <_>
          <internalNodes>
            0 -1 39 -3.3948913216590881e-02</internalNodes>
          <leafValues>
            3.7497991323471069e-01 -3.0702695250511169e-01</leafValues></_>
        <_>
          <internalNodes>
            0 -1 148 -1.0555570479482412e-03</internalNodes>
          <leafValues>
            2.8339108824729919e-01 -3.4105291962623596e-01</leafValues></_>
        <_>
          <internalNodes>
            0 -1 193 -2.5320036802440882e-03</internalNodes>
          <leafValues>
            3.3773618936538696e-01 -2.8504407405853271e-01</leafValues></_>
        <_>
          <internalNodes>
            0 -1 2 1.7262685578316450e-03</internalNodes>
          <leafValues>
            -2.1403881907463074e-01 4.4599425792694092e-01</leafValues></_>
        <_>
          <internalNodes>
            0 -1 17 2.7543562464416027e-03</internalNodes>
          <leafValues>
            -2.4989564716815948e-01 3.6593583226203918e-01</leafValues></_>
        <_>
          <internalNodes>
            0 -1 130 -1.6428671369794756e-04</internalNodes>
          <leafValues>
            -4.9986121058464050e-01 1.8334677815437317e-01</leafValues></_>
        <_>
          <internalNodes>
            0 -1 166 -3.3571380190551281e-03</internalNodes>
          <leafValues>
            6.4031088352203369e-01 -1.6886676847934723e-01</leafValues></_>
        <_>
          <internalNodes>
            0 -1 37 -2.8978625778108835e-03</internalNodes>
          <leafValues>
            5.2589648962020874e-01 -1.7598639428615570e-01</leafValues></_></weakClassifiers></_>
    <!-- stage 5 -->
    <_>
      <maxWeakCount>10</maxWeakCount>
      <stageThreshold>-9.0325665473937988e-01</stageThreshold>
      <weakClassifiers>
        <_>
          <internalNodes>
            0 -1 92 -8.4716528654098511e-02</internalNodes>
          <leafValues>
            2.8571429848670959e-01 -6.0171306133270264e-01</leafValues></_>
        <_>
          <internalNodes>
            0 -1 147 -4.2649749666452408e-02</internalNodes>
          <leafValues>
            2.4206505715847015e-01 -3.6401313543319702e-01</leafValues></_>
        <_>
          <internalNodes>
            0 -1 97 1.5811942517757416e-02</internalNodes>
          <leafValues>
            -1.9343252480030060e-01 5.6451767683029175e-01</leafValues></_>
        <_>
          <internalNodes>
            0 -1 104 1.3678229413926601e-02</internalNodes>
          <leafValues>
            -1.6597855091094971e-01 5.1539164781570435e-01</leafValues></_>
        <_>
          <internalNodes>
            0 -1 53 -3.7487939000129700e-02</internalNodes>
          <leafValues>
            5.4761415719985962e-01 -1.8617548048496246e-01</leafValues></_>
        <_>
          <internalNodes>
            0 -1 169 2.4964558542706072e-04</internalNodes>
          <leafValues>
            1.7046697437763214e-01 -5.8112680912017822e-01</leafValues></_>
        <_>
          <internalNodes>
            0 -1 32 9.0081933885812759e-03</internalNodes>
          <leafValues>
            -1.3462324440479279e-01 6.3183009624481201e-01</leafValues></_>
        <_>
          <internalNodes>
            0 -1 10 1.2315878644585609e-02</internalNodes>
          <leafValues>
            -1.5079027414321899e-01 7.2227197885513306e-01</leafValues></_>
        <_>
          <internalNodes>
            0 -1 189 1.1096592061221600e-03</internalNodes>
          <leafValues>
            -2.6693543791770935e-01 3.5068443417549133e-01</leafValues></_>
        <_>
          <internalNodes>
            0 -1 3 -3.5402175039052963e-02</internalNodes>
          <leafValues>
            3.8385990262031555e-01 -3.0732429027557373e-01</leafValues></_></weakClassifiers></_>
    <!-- stage 6 -->
    <_>
      <maxWeakCount>10</maxWeakCount>
      <stageThreshold>-1.3815643787384033e+00</stageThreshold>
      <weakClassifiers>
        <_>
          <internalNodes>
            0 -1 123 6.2146587297320366e-03</internalNodes>
          <leafValues>
            -5.7085019350051880e-01 4.3859648704528809e-01</leafValues></_>
        <_>
          <internalNodes>
            0 -1 9 -1.3209894532337785e-03</internalNodes>
          <leafValues>
            5.2298837900161743e-01 -2.7347290515899658e-01</leafValues></_>
        <_>
          <internalNodes>
            0 -1 19 6.3638426363468170e-03</internalNodes>
          <leafValues>
            -1.7971438169479370e-01 7.0427793264389038e-01</leafValues></_>
        <_>
          <internalNodes>
            0 -1 28 -3.0289362184703350e-03</internalNodes>
          <leafValues>
            4.9650785326957703e-01 -2.0471689105033875e-01</leafValues></_>
        <_>
          <internalNodes>
            0 -1 111 -9.9634868092834949e-04</internalNodes>
          <leafValues>
            -5.0268197059631348e-01 2.1840290725231171e-01</leafValues></_>
        <_>
          <internalNodes>
            0 -1 38 -5.9298235923051834e-02</internalNodes>
          <leafValues>
            4.4942411780357361e-01 -2.6523059606552124e-01</leafValues></_>
        <_>
          <internalNodes>
            0 -1 117 2.6058591902256012e-03</internalNodes>
          <leafValues>
            -2.1939624845981598e-01 6.2025612592697144e-01</leafValues></_>
        <_>
          <internalNodes>
            0 -1 158 3.5121217370033264e-03</internalNodes>
          <leafValues>
            -1.8349698185920715e-01 6.3179779052734375e-01</leafValues></_>
        <_>
          <internalNodes>
            0 -1 5 -1.5055651310831308e-03</internalNodes>
          <leafValues>
            5.3889632225036621e-01 -2.3540160059928894e-01</leafValues></_>
        <_>
          <internalNodes>
            0 -1 195 -9.5681847597006708e-05</internalNodes>
          <leafValues>
            3.7090554833412170e-01 -3.0733990669250488e-01</leafValues></_></weakClassifiers></_>
    <!-- stage 7 -->
    <_>
      <maxWeakCount>8</maxWeakCount>
      <stageThreshold>-8.4852230548858643e-01</stageThreshold>
      <weakClassifiers>
        <_>
          <internalNodes>
            0 -1 22 -1.1763533949851990e-01</internalNodes>
          <leafValues>
            3.3333334326744080e-01 -6.4159291982650757e-01</leafValues></_>
        <_>
          <internalNodes>
            0 -1 7 6.2373392283916473e-02</internalNodes>
          <leafValues>
            -3.0672878026962280e-01 5.8041024208068848e-01</leafValues></_>
        <_>
          <internalNodes>
            0 -1 173 -3.8363600615411997e-03</internalNodes>
          <leafValues>
            -9.8212170600891113e-01 1.3283132016658783e-01</leafValues></_>
        <_>
          <internalNodes>
            0 -1 23 6.9788292050361633e-02</internalNodes>
          <leafValues>
            -1.6652318835258484e-01 8.8995671272277832e-01</leafValues></_>
        <_>
          <internalNodes>
            0 -1 4 2.3535657674074173e-02</internalNodes>
          <leafValues>
            -2.4960255622863770e-01 5.2999472618103027e-01</leafValues></_>
        <_>
          <internalNodes>
            0 -1 73 -7.1770912036299706e-03</internalNodes>
          <leafValues>
            -6.7921906709671021e-01 2.1489730477333069e-01</leafValues></_>
        <_>
          <internalNodes>
            0 -1 159 4.5172572135925293e-02</internalNodes>
          <leafValues>
            -1.9951559603214264e-01 7.5964665412902832e-01</leafValues></_>
        <_>
          <internalNodes>
            0 -1 66 -5.7552568614482880e-02</internalNodes>
          <leafValues>
            4.8223116993904114e-01 -2.5352099537849426e-01</leafValues></_></weakClassifiers></_>
    <!-- stage 8 -->
    <_>
      <maxWeakCount>12</maxWeakCount>
      <stageThreshold>-1.0792012214660645e+00</stageThreshold>
      <weakClassifiers>
        <_>
          <internalNodes>
            0 -1 168 1.5147384256124496e-02</internalNodes>
          <leafValues>
            -5.6262427568435669e-01 5.4166668653488159e-01</leafValues></_>
        <_>
          <internalNodes>
            0 -1 171 9.1552231460809708e-03</internalNodes>
          <leafValues>
            -2.0878404378890991e-01 7.2984904050827026e-01</leafValues></_>
        <_>
          <internalNodes>
            0 -1 18 -1.7443457618355751e-03</internalNodes>
          <leafValues>
            5.6080776453018188e-01 -2.2215779125690460e-01</leafValues></_>
        <_>
          <internalNodes>
            0 -1 6 -2.8531760908663273e-03</internalNodes>
          <leafValues>
            5.4032617807388306e-01 -2.2233167290687561e-01</leafValues></_>
        <_>
          <internalNodes>
            0 -1 27 -1.4811703935265541e-02</internalNodes>
          <leafValues>
            7.6651668548583984e-01 -1.3328564167022705e-01</leafValues></_>
        <_>
          <internalNodes>
            0 -1 198 8.6518172174692154e-03</internalNodes>
          <leafValues>
            -1.5128874778747559e-01 7.5388449430465698e-01</leafValues></_>
        <_>
          <internalNodes>
            0 -1 25 -2.0232793688774109e-01</internalNodes>
          <leafValues>
            -7.2776269912719727e-01 1.7380523681640625e-01</leafValues></_>
        <_>
          <internalNodes>
            0 -1 210 -1.7445094999857247e-04</internalNodes>
          <leafValues>
            -4.7613897919654846e-01 2.5782647728919983e-01</leafValues></_>
        <_>
          <internalNodes>
            0 -1 85 -5.9120981022715569e-03</internalNodes>
          <leafValues>
            5.1719480752944946e-01 -2.1830776333808899e-01</leafValues></_>
        <_>
          <internalNodes>
            0 -1 124 2.8371103107929230e-02</internalNodes>
          <leafValues>
            -1.3631582260131836e-01 8.7077254056930542e-01</leafValues></_>
        <_>
          <internalNodes>
            0 -1 34 2.6340167969465256e-03</internalNodes>
          <leafValues>
            -9.7631007432937622e-02 7.6154637336730957e-01</leafValues></_>
        <_>
          <internalNodes>
            0 -1 134 -8.0096013844013214e-03</internalNodes>
          <leafValues>
            4.4189375638961792e-01 -2.5116518139839172e-01</leafValues></_></weakClassifiers></_>
    <!-- stage 9 -->
    <_>
      <maxWeakCount>11</maxWeakCount>
      <stageThreshold>-1.0950973033905029e+00</stageThreshold>
      <weakClassifiers>
        <_>
          <internalNodes>
            0 -1 79 -1.0026789823314175e-05</internalNodes>
          <leafValues>
            -1.6455696523189545e-01 -6.9426751136779785e-01</leafValues></_>
        <_>
          <internalNodes>
            0 -1 65 -1.1160917892993893e-05</internalNodes>
          <leafValues>
            2.3334756493568420e-01 -3.5949814319610596e-01</leafValues></_>
        <_>
          <internalNodes>
            0 -1 194 -1.1560200618987437e-05</internalNodes>
          <leafValues>
            2.9246893525123596e-01 -3.0277678370475769e-01</leafValues></_>
        <_>
          <internalNodes>
            0 -1 54 3.5503663821145892e-04</internalNodes>
          <leafValues>
            -3.8539698719978333e-01 2.5655487179756165e-01</leafValues></_>
        <_>
          <internalNodes>
            0 -1 61 -1.5516625717282295e-02</internalNodes>
          <leafValues>
            3.8831511139869690e-01 -2.2886118292808533e-01</leafValues></_>
        <_>
          <internalNodes>
            0 -1 125 2.2770731447963044e-05</internalNodes>
          <leafValues>
            -3.1369650363922119e-01 4.0528497099876404e-01</leafValues></_>
        <_>
          <internalNodes>
            0 -1 199 1.1668931620079093e-05</internalNodes>
          <leafValues>
            -2.9404395818710327e-01 3.2245478034019470e-01</leafValues></_>
        <_>
          <internalNodes>
            0 -1 49 1.0180889628827572e-02</internalNodes>
          <leafValues>
            -1.3851721584796906e-01 7.1946692466735840e-01</leafValues></_>
        <_>
          <internalNodes>
            0 -1 184 1.4065863564610481e-02</internalNodes>
          <leafValues>
            -1.4656515419483185e-01 7.0364993810653687e-01</leafValues></_>
        <_>
          <internalNodes>
            0 -1 40 -1.1184772120031994e-05</internalNodes>
          <leafValues>
            3.6478900909423828e-01 -2.8938484191894531e-01</leafValues></_>
        <_>
          <internalNodes>
            0 -1 191 -9.3256930995266885e-06</internalNodes>
          <leafValues>
            3.4249025583267212e-01 -2.7706724405288696e-01</leafValues></_></weakClassifiers></_>
    <!-- stage 10 -->
    <_>
      <maxWeakCount>8</maxWeakCount>
      <stageThreshold>-9.3625682592391968e-01</stageThreshold>
      <weakClassifiers>
        <_>
          <internalNodes>
            0 -1 101 -3.1110033160075545e-04</internalNodes>
          <leafValues>
            5.7142859697341919e-01 -5.8383840322494507e-01</leafValues></_>
        <_>
          <internalNodes>
            0 -1 55 1.9338045967742801e-04</internalNodes>
          <leafValues>
            -2.8054752945899963e-01 6.1892294883728027e-01</leafValues></_>
        <_>
          <internalNodes>
            0 -1 179 4.9295823555439711e-04</internalNodes>
          <leafValues>
            -2.5204306840896606e-01 6.2234532833099365e-01</leafValues></_>
        <_>
          <internalNodes>
            0 -1 139 -3.4699594834819436e-04</internalNodes>
          <leafValues>
            6.0414767265319824e-01 -2.0387443900108337e-01</leafValues></_>
        <_>
          <internalNodes>
            0 -1 181 1.0026789823314175e-05</internalNodes>
          <leafValues>
            -3.7469029426574707e-01 3.9513209462165833e-01</leafValues></_>
        <_>
          <internalNodes>
            0 -1 208 3.1648017466068268e-04</internalNodes>
          <leafValues>
            -2.0179210603237152e-01 6.8800115585327148e-01</leafValues></_>
        <_>
          <internalNodes>
            0 -1 33 7.9360191011801362e-04</internalNodes>
          <leafValues>
            -2.3339733481407166e-01 5.8271425962448120e-01</leafValues></_>
        <_>
          <internalNodes>
            0 -1 93 -2.7592532569542527e-04</internalNodes>
          <leafValues>
            4.2410397529602051e-01 -3.7918561697006226e-01</leafValues></_></weakClassifiers></_>
    <!-- stage 11 -->
    <_>
      <maxWeakCount>11</maxWeakCount>
      <stageThreshold>-1.0335732698440552e+00</stageThreshold>
      <weakClassifiers>
        <_>
          <internalNodes>
            0 -1 15 9.6604431746527553e-04</internalNodes>
          <leafValues>
            -5.8078604936599731e-01 9.6774190664291382e-02</leafValues></_>
        <_>
          <internalNodes>
            0 -1 44 8.8899274123832583e-04</internalNodes>
          <leafValues>
            -2.5803530216217041e-01 3.8008910417556763e-01</leafValues></_>
        <_>
          <internalNodes>
            0 -1 76 9.8700419068336487e-02</internalNodes>
          <leafValues>
            1.2474521994590759e-01 -8.1305581331253052e-01</leafValues></_>
        <_>
          <internalNodes>
            0 -1 42 -7.2621211409568787e-02</internalNodes>
          <leafValues>
            -3.2861620187759399e-01 3.0385315418243408e-01</leafValues></_>
        <_>
          <internalNodes>
            0 -1 156 -9.9137578217778355e-06</internalNodes>
          <leafValues>
            2.9647526144981384e-01 -3.2190868258476257e-01</leafValues></_>
        <_>
          <internalNodes>
            0 -1 192 -1.1804224923253059e-03</internalNodes>
          <leafValues>
            4.1455841064453125e-01 -2.2537837922573090e-01</leafValues></_>
        <_>
          <internalNodes>
            0 -1 60 -2.3105014115571976e-02</internalNodes>
          <leafValues>
            7.5236988067626953e-01 -1.0029838234186172e-01</leafValues></_>
        <_>
          <internalNodes>
            0 -1 203 -2.5716371834278107e-02</internalNodes>
          <leafValues>
            5.8633351325988770e-01 -1.4637950062751770e-01</leafValues></_>
        <_>
          <internalNodes>
            0 -1 108 5.5740273091942072e-04</internalNodes>
          <leafValues>
            -2.0429751276969910e-01 4.5122945308685303e-01</leafValues></_>
        <_>
          <internalNodes>
            0 -1 196 -1.4617567649111152e-04</internalNodes>
          <leafValues>
            4.5736140012741089e-01 -2.0768135786056519e-01</leafValues></_>
        <_>
          <internalNodes>
            0 -1 64 -9.9137578217778355e-06</internalNodes>
          <leafValues>
            3.0778068304061890e-01 -3.1516566872596741e-01</leafValues></_></weakClassifiers></_>
    <!-- stage 12 -->
    <_>
      <maxWeakCount>9</maxWeakCount>
      <stageThreshold>-1.1289987564086914e+00</stageThreshold>
      <weakClassifiers>
        <_>
          <internalNodes>
            0 -1 46 -9.1179255396127701e-03</internalNodes>
          <leafValues>
            8.8888889551162720e-01 -5.1219511032104492e-01</leafValues></_>
        <_>
          <internalNodes>
            0 -1 81 2.4927219375967979e-02</internalNodes>
          <leafValues>
            7.4883460998535156e-02 -8.0813789367675781e-01</leafValues></_>
        <_>
          <internalNodes>
            0 -1 71 -2.7548594400286674e-02</internalNodes>
          <leafValues>
            -8.5799944400787354e-01 9.2159479856491089e-02</leafValues></_>
        <_>
          <internalNodes>
            0 -1 82 4.4988901354372501e-03</internalNodes>
          <leafValues>
            1.5673066675662994e-01 -7.1529406309127808e-01</leafValues></_>
        <_>
          <internalNodes>
            0 -1 87 -1.3227451745478902e-05</internalNodes>
          <leafValues>
            2.7077987790107727e-01 -3.7134391069412231e-01</leafValues></_>
        <_>
          <internalNodes>
            0 -1 74 -9.9137578217778355e-06</internalNodes>
          <leafValues>
            3.4768983721733093e-01 -2.7073556184768677e-01</leafValues></_>
        <_>
          <internalNodes>
            0 -1 137 7.5046479701995850e-02</internalNodes>
          <leafValues>
            1.0125026851892471e-01 -1.</leafValues></_>
        <_>
          <internalNodes>
            0 -1 11 -1.1220599844818935e-05</internalNodes>
          <leafValues>
            2.8291866183280945e-01 -3.2515123486518860e-01</leafValues></_>
        <_>
          <internalNodes>
            0 -1 119 6.2946174293756485e-03</internalNodes>
          <leafValues>
            1.7900250852108002e-01 -6.6575324535369873e-01</leafValues></_></weakClassifiers></_>
    <!-- stage 13 -->
    <_>
      <maxWeakCount>12</maxWeakCount>
      <stageThreshold>-9.8068600893020630e-01</stageThreshold>
      <weakClassifiers>
        <_>
          <internalNodes>
            0 -1 121 5.6125417351722717e-02</internalNodes>
          <leafValues>
            -5.4980081319808960e-01 3.8775509595870972e-01</leafValues></_>
        <_>
          <internalNodes>
            0 -1 57 -7.9327516257762909e-02</internalNodes>
          <leafValues>
            3.5601130127906799e-01 -2.7078637480735779e-01</leafValues></_>
        <_>
          <internalNodes>
            0 -1 157 2.0008679712191224e-05</internalNodes>
          <leafValues>
            -3.4410759806632996e-01 2.5517499446868896e-01</leafValues></_>
        <_>
          <internalNodes>
            0 -1 95 3.1055305153131485e-03</internalNodes>
          <leafValues>
            -2.0454803109169006e-01 3.5693106055259705e-01</leafValues></_>
        <_>
          <internalNodes>
            0 -1 107 -1.9238409586250782e-03</internalNodes>
          <leafValues>
            -1. 7.6544992625713348e-02</leafValues></_>
        <_>
          <internalNodes>
            0 -1 145 -3.9468454197049141e-03</internalNodes>
          <leafValues>
            5.3144669532775879e-01 -1.5534196794033051e-01</leafValues></_>
        <_>
          <internalNodes>
            0 -1 154 -1.0512933658901602e-04</internalNodes>
          <leafValues>
            -3.7477928400039673e-01 2.1534518897533417e-01</leafValues></_>
        <_>
          <internalNodes>
            0 -1 151 -2.6625894010066986e-02</internalNodes>
          <leafValues>
            -9.1076099872589111e-01 1.3012701272964478e-01</leafValues></_>
        <_>
          <internalNodes>
            0 -1 175 1.6248896718025208e-02</internalNodes>
          <leafValues>
            -1.2850432097911835e-01 8.5738742351531982e-01</leafValues></_>
        <_>
          <internalNodes>
            0 -1 136 4.6375411329790950e-04</internalNodes>
          <leafValues>
            1.4840133488178253e-01 -6.3771831989288330e-01</leafValues></_>
        <_>
          <internalNodes>
            0 -1 56 -2.9181460849940777e-03</internalNodes>
          <leafValues>
            7.0764905214309692e-01 -1.4445376396179199e-01</leafValues></_>
        <_>
          <internalNodes>
            0 -1 135 6.3715520082041621e-04</internalNodes>
          <leafValues>
            -2.0608267188072205e-01 4.0576028823852539e-01</leafValues></_></weakClassifiers></_>
    <!-- stage 14 -->
    <_>
      <maxWeakCount>11</maxWeakCount>
      <stageThreshold>-1.0068200826644897e+00</stageThreshold>
      <weakClassifiers>
        <_>
          <internalNodes>
            0 -1 152 2.6753917336463928e-02</internalNodes>
          <leafValues>
            -5.0185871124267578e-01 1.</leafValues></_>
        <_>
          <internalNodes>
            0 -1 26 1.2317474931478500e-02</internalNodes>
          <leafValues>
            3.3360883593559265e-02 -1.</leafValues></_>
        <_>
          <internalNodes>
            0 -1 70 3.2103131525218487e-04</internalNodes>
          <leafValues>
            1.7546206712722778e-01 -4.0694469213485718e-01</leafValues></_>
        <_>
          <internalNodes>
            0 -1 176 -3.4996922477148473e-04</internalNodes>
          <leafValues>
            -4.0804132819175720e-01 1.6583602130413055e-01</leafValues></_>
        <_>
          <internalNodes>
            0 -1 206 1.1560200618987437e-05</internalNodes>
          <leafValues>
            -2.9089990258216858e-01 2.4151980876922607e-01</leafValues></_>
        <_>
          <internalNodes>
            0 -1 105 8.1860609352588654e-03</internalNodes>
          <leafValues>
            1.1308518052101135e-01 -8.8773483037948608e-01</leafValues></_>
        <_>
          <internalNodes>
            0 -1 12 -7.9810330644249916e-03</internalNodes>
          <leafValues>
            5.2134287357330322e-01 -1.5888458490371704e-01</leafValues></_>
        <_>
          <internalNodes>
            0 -1 144 -2.7944926172494888e-02</internalNodes>
          <leafValues>
            -4.8170068860054016e-01 1.7085175216197968e-01</leafValues></_>
        <_>
          <internalNodes>
            0 -1 167 -8.6225767154246569e-04</internalNodes>
          <leafValues>
            3.2431417703628540e-01 -2.5234162807464600e-01</leafValues></_>
        <_>
          <internalNodes>
            0 -1 160 6.0310503467917442e-03</internalNodes>
          <leafValues>
            1.1190236359834671e-01 -6.7866593599319458e-01</leafValues></_>
        <_>
          <internalNodes>
            0 -1 94 9.9795115602319129e-06</internalNodes>
          <leafValues>
            -2.9517775774002075e-01 2.6722183823585510e-01</leafValues></_></weakClassifiers></_>
    <!-- stage 15 -->
    <_>
      <maxWeakCount>14</maxWeakCount>
      <stageThreshold>-9.5735973119735718e-01</stageThreshold>
      <weakClassifiers>
        <_>
          <internalNodes>
            0 -1 103 -3.1908981502056122e-02</internalNodes>
          <leafValues>
            7.2727274894714355e-01 -5.1606804132461548e-01</leafValues></_>
        <_>
          <internalNodes>
            0 -1 69 -3.7995283491909504e-04</internalNodes>
          <leafValues>
            -6.1244279146194458e-01 7.4409775435924530e-02</leafValues></_>
        <_>
          <internalNodes>
            0 -1 155 -1.3773264363408089e-03</internalNodes>
          <leafValues>
            -8.2988286018371582e-01 9.4908550381660461e-02</leafValues></_>
        <_>
          <internalNodes>
            0 -1 138 5.2995779551565647e-03</internalNodes>
          <leafValues>
            2.0684318244457245e-01 -3.6878475546836853e-01</leafValues></_>
        <_>
          <internalNodes>
            0 -1 127 9.3256930995266885e-06</internalNodes>
          <leafValues>
            -2.5786566734313965e-01 2.9119908809661865e-01</leafValues></_>
        <_>
          <internalNodes>
            0 -1 188 -7.6018870458938181e-05</internalNodes>
          <leafValues>
            -3.7459483742713928e-01 2.1058678627014160e-01</leafValues></_>
        <_>
          <internalNodes>
            0 -1 88 -3.1169399153441191e-03</internalNodes>
          <leafValues>
            4.2500457167625427e-01 -1.9563356041908264e-01</leafValues></_>
        <_>
          <internalNodes>
            0 -1 204 -1.1160917892993893e-05</internalNodes>
          <leafValues>
            2.8508281707763672e-01 -2.7427157759666443e-01</leafValues></_>
        <_>
          <internalNodes>
            0 -1 178 -1.9417172297835350e-02</internalNodes>
          <leafValues>
            6.2347155809402466e-01 -1.3359710574150085e-01</leafValues></_>
        <_>
          <internalNodes>
            0 -1 14 -2.8243486303836107e-04</internalNodes>
          <leafValues>
            2.8771507740020752e-01 -3.1646293401718140e-01</leafValues></_>
        <_>
          <internalNodes>
            0 -1 197 3.6511931102722883e-04</internalNodes>
          <leafValues>
            2.0843069255352020e-01 -3.9500790834426880e-01</leafValues></_>
        <_>
          <internalNodes>
            0 -1 36 -9.8690316081047058e-03</internalNodes>
          <leafValues>
            7.1506780385971069e-01 -1.2689736485481262e-01</leafValues></_>
        <_>
          <internalNodes>
            0 -1 205 1.6427303489763290e-04</internalNodes>
          <leafValues>
            2.3132918775081635e-01 -4.0881988406181335e-01</leafValues></_>
        <_>
          <internalNodes>
            0 -1 174 -1.5213661827147007e-02</internalNodes>
          <leafValues>
            5.5989289283752441e-01 -1.6381102800369263e-01</leafValues></_></weakClassifiers></_>
    <!-- stage 16 -->
    <_>
      <maxWeakCount>14</maxWeakCount>
      <stageThreshold>-1.0734864473342896e+00</stageThreshold>
      <weakClassifiers>
        <_>
          <internalNodes>
            0 -1 132 9.5128081738948822e-03</internalNodes>
          <leafValues>
            -5.2826511859893799e-01 3.6842104792594910e-01</leafValues></_>
        <_>
          <internalNodes>
            0 -1 84 -5.2012149244546890e-03</internalNodes>
          <leafValues>
            3.9849171042442322e-01 -2.0866867899894714e-01</leafValues></_>
        <_>
          <internalNodes>
            0 -1 163 4.7913864254951477e-03</internalNodes>
          <leafValues>
            8.5538528859615326e-02 -8.0992561578750610e-01</leafValues></_>
        <_>
          <internalNodes>
            0 -1 24 -6.1340071260929108e-02</internalNodes>
          <leafValues>
            6.3116878271102905e-01 -1.0273541510105133e-01</leafValues></_>
        <_>
          <internalNodes>
            0 -1 146 -2.2428219672292471e-03</internalNodes>
          <leafValues>
            -4.9427923560142517e-01 1.8135927617549896e-01</leafValues></_>
        <_>
          <internalNodes>
            0 -1 170 2.4306229897774756e-04</internalNodes>
          <leafValues>
            1.3687555491924286e-01 -5.2439421415328979e-01</leafValues></_>
        <_>
          <internalNodes>
            0 -1 89 -1.4190275687724352e-03</internalNodes>
          <leafValues>
            3.8382118940353394e-01 -1.9296851754188538e-01</leafValues></_>
        <_>
          <internalNodes>
            0 -1 112 3.8897436112165451e-02</internalNodes>
          <leafValues>
            -1.7076724767684937e-01 4.9847647547721863e-01</leafValues></_>
        <_>
          <internalNodes>
            0 -1 75 -8.4436070173978806e-03</internalNodes>
          <leafValues>
            -5.5806767940521240e-01 1.9913212954998016e-01</leafValues></_>
        <_>
          <internalNodes>
            0 -1 72 -8.1289902329444885e-02</internalNodes>
          <leafValues>
            5.4692673683166504e-01 -1.6961048543453217e-01</leafValues></_>
        <_>
          <internalNodes>
            0 -1 90 4.0690638124942780e-02</internalNodes>
          <leafValues>
            -1.7368686199188232e-01 5.2961373329162598e-01</leafValues></_>
        <_>
          <internalNodes>
            0 -1 109 -2.4746552109718323e-02</internalNodes>
          <leafValues>
            3.8305026292800903e-01 -2.3342542350292206e-01</leafValues></_>
        <_>
          <internalNodes>
            0 -1 165 -1.2713773176074028e-02</internalNodes>
          <leafValues>
            5.0094825029373169e-01 -1.8611378967761993e-01</leafValues></_>
        <_>
          <internalNodes>
            0 -1 187 -3.4560409840196371e-03</internalNodes>
          <leafValues>
            4.8967036604881287e-01 -1.7658661305904388e-01</leafValues></_></weakClassifiers></_>
    <!-- stage 17 -->
    <_>
      <maxWeakCount>12</maxWeakCount>
      <stageThreshold>-1.0394784212112427e+00</stageThreshold>
      <weakClassifiers>
        <_>
          <internalNodes>
            0 -1 86 1.6149725764989853e-02</internalNodes>
          <leafValues>
            -5.4878050088882446e-01 2.2033898532390594e-01</leafValues></_>
        <_>
          <internalNodes>
            0 -1 126 2.1628995455102995e-05</internalNodes>
          <leafValues>
            -3.0256393551826477e-01 2.4337801337242126e-01</leafValues></_>
        <_>
          <internalNodes>
            0 -1 162 -8.1224844325333834e-04</internalNodes>
          <leafValues>
            -8.9504295587539673e-01 7.8514039516448975e-02</leafValues></_>
        <_>
          <internalNodes>
            0 -1 77 -3.6738594062626362e-03</internalNodes>
          <leafValues>
            -8.1565326452255249e-01 9.1867513954639435e-02</leafValues></_>
        <_>
          <internalNodes>
            0 -1 207 -1.7340593039989471e-03</internalNodes>
          <leafValues>
            4.8791456222534180e-01 -1.5624867379665375e-01</leafValues></_>
        <_>
          <internalNodes>
            0 -1 113 1.0375573765486479e-03</internalNodes>
          <leafValues>
            -1.7979682981967926e-01 4.0335470438003540e-01</leafValues></_>
        <_>
          <internalNodes>
            0 -1 1 -1.1515771038830280e-03</internalNodes>
          <leafValues>
            4.0232926607131958e-01 -1.8472720682621002e-01</leafValues></_>
        <_>
          <internalNodes>
            0 -1 172 -1.2534275650978088e-02</internalNodes>
          <leafValues>
            4.7440290451049805e-01 -1.9300611317157745e-01</leafValues></_>
        <_>
          <internalNodes>
            0 -1 180 -1.8906425684690475e-02</internalNodes>
          <leafValues>
            4.8571228981018066e-01 -1.5843646228313446e-01</leafValues></_>
        <_>
          <internalNodes>
            0 -1 185 -1.3359544798731804e-02</internalNodes>
          <leafValues>
            4.6276199817657471e-01 -1.6828143596649170e-01</leafValues></_>
        <_>
          <internalNodes>
            0 -1 183 -2.1668847650289536e-02</internalNodes>
          <leafValues>
            8.7639492750167847e-01 -5.1114942878484726e-02</leafValues></_>
        <_>
          <internalNodes>
            0 -1 209 -1.7732875421643257e-03</internalNodes>
          <leafValues>
            -4.7292599081993103e-01 2.0408840477466583e-01</leafValues></_></weakClassifiers></_>
    <!-- stage 18 -->
    <_>
      <maxWeakCount>13</maxWeakCount>
      <stageThreshold>-1.1706706285476685e+00</stageThreshold>
      <weakClassifiers>
        <_>
          <internalNodes>
            0 -1 142 -7.4381432496011257e-03</internalNodes>
          <leafValues>
            3.0612245202064514e-01 -5.4183268547058105e-01</leafValues></_>
        <_>
          <internalNodes>
            0 -1 31 7.9378169029951096e-03</internalNodes>
          <leafValues>
            -1.9527609646320343e-01 4.8820972442626953e-01</leafValues></_>
        <_>
          <internalNodes>
            0 -1 182 -4.6911952085793018e-04</internalNodes>
          <leafValues>
            -4.3351554870605469e-01 1.8348214030265808e-01</leafValues></_>
        <_>
          <internalNodes>
            0 -1 35 1.1104282457381487e-03</internalNodes>
          <leafValues>
            -1.4062365889549255e-01 5.8229523897171021e-01</leafValues></_>
        <_>
          <internalNodes>
            0 -1 153 2.0062488038092852e-03</internalNodes>
          <leafValues>
            1.3305640220642090e-01 -6.4918476343154907e-01</leafValues></_>
        <_>
          <internalNodes>
            0 -1 129 2.7973100543022156e-02</internalNodes>
          <leafValues>
            1.3297103345394135e-01 -7.5025516748428345e-01</leafValues></_>
        <_>
          <internalNodes>
            0 -1 45 4.7626374289393425e-03</internalNodes>
          <leafValues>
            -1.5435105562210083e-01 5.3687626123428345e-01</leafValues></_>
        <_>
          <internalNodes>
            0 -1 68 3.0317483469843864e-04</internalNodes>
          <leafValues>
            2.3308899998664856e-01 -3.4338080883026123e-01</leafValues></_>
        <_>
          <internalNodes>
            0 -1 114 7.2182305157184601e-03</internalNodes>
          <leafValues>
            -1.2517555058002472e-01 7.9783022403717041e-01</leafValues></_>
        <_>
          <internalNodes>
            0 -1 190 2.0087986194994301e-04</internalNodes>
          <leafValues>
            1.8495483696460724e-01 -4.8111203312873840e-01</leafValues></_>
        <_>
          <internalNodes>
            0 -1 48 -2.0003332756459713e-03</internalNodes>
          <leafValues>
            4.0109819173812866e-01 -2.0180588960647583e-01</leafValues></_>
        <_>
          <internalNodes>
            0 -1 58 -1.3965104008093476e-03</internalNodes>
          <leafValues>
            3.2023921608924866e-01 -2.5080245733261108e-01</leafValues></_>
        <_>
          <internalNodes>
            0 -1 128 -4.3826149776577950e-03</internalNodes>
          <leafValues>
            3.9212617278099060e-01 -2.1715712547302246e-01</leafValues></_></weakClassifiers></_>
    <!-- stage 19 -->
    <_>
      <maxWeakCount>14</maxWeakCount>
      <stageThreshold>-1.0408096313476563e+00</stageThreshold>
      <weakClassifiers>
        <_>
          <internalNodes>
            0 -1 29 1.3201652327552438e-03</internalNodes>
          <leafValues>
            -5.5793988704681396e-01 3.5294119268655777e-02</leafValues></_>
        <_>
          <internalNodes>
            0 -1 30 2.3013431578874588e-02</internalNodes>
          <leafValues>
            2.3140940815210342e-02 -8.7439858913421631e-01</leafValues></_>
        <_>
          <internalNodes>
            0 -1 122 -2.6565033942461014e-02</internalNodes>
          <leafValues>
            5.3677111864089966e-01 -1.3388565182685852e-01</leafValues></_>
        <_>
          <internalNodes>
            0 -1 202 5.5786515586078167e-03</internalNodes>
          <leafValues>
            2.0069745182991028e-01 -3.9815983176231384e-01</leafValues></_>
        <_>
          <internalNodes>
            0 -1 118 -3.7374235689640045e-03</internalNodes>
          <leafValues>
            -7.0319503545761108e-01 9.2648103833198547e-02</leafValues></_>
        <_>
          <internalNodes>
            0 -1 115 -1.1220599844818935e-05</internalNodes>
          <leafValues>
            2.2154934704303741e-01 -3.1064075231552124e-01</leafValues></_>
        <_>
          <internalNodes>
            0 -1 13 1.0883480717893690e-04</internalNodes>
          <leafValues>
            -2.2974108159542084e-01 3.7691190838813782e-01</leafValues></_>
        <_>
          <internalNodes>
            0 -1 140 -1.6767982160672545e-03</internalNodes>
          <leafValues>
            2.9403266310691833e-01 -3.0702862143516541e-01</leafValues></_>
        <_>
          <internalNodes>
            0 -1 141 -2.9208632186055183e-03</internalNodes>
          <leafValues>
            -5.8758026361465454e-01 1.3242015242576599e-01</leafValues></_>
        <_>
          <internalNodes>
            0 -1 43 -1.9243944436311722e-02</internalNodes>
          <leafValues>
            -8.8667505979537964e-01 7.3231033980846405e-02</leafValues></_>
        <_>
          <internalNodes>
            0 -1 106 6.4508933573961258e-03</internalNodes>
          <leafValues>
            -1.9687372446060181e-01 4.3216708302497864e-01</leafValues></_>
        <_>
          <internalNodes>
            0 -1 50 -4.1613499633967876e-03</internalNodes>
          <leafValues>
            -3.9990341663360596e-01 2.1574549376964569e-01</leafValues></_>
        <_>
          <internalNodes>
            0 -1 100 -2.8791094664484262e-03</internalNodes>
          <leafValues>
            4.2451885342597961e-01 -2.1932423114776611e-01</leafValues></_>
        <_>
          <internalNodes>
            0 -1 201 3.0047996551729739e-04</internalNodes>
          <leafValues>
            2.5799596309661865e-01 -3.2340756058692932e-01</leafValues></_></weakClassifiers></_></stages>
  <features>
    <_>
      <rects>
        <_>
          0 1 4 22 -1.</_>
        <_>
          2 1 2 22 2.</_></rects>
      <tilted>0</tilted></_>
    <_>
      <rects>
        <_>
          0 4 7 2 -1.</_>
        <_>
          0 5 7 1 2.</_></rects>
      <tilted>0</tilted></_>
    <_>
      <rects>
        <_>
          0 4 10 3 -1.</_>
        <_>
          0 5 10 1 3.</_></rects>
      <tilted>0</tilted></_>
    <_>
      <rects>
        <_>
          0 4 40 7 -1.</_>
        <_>
          20 4 20 7 2.</_></rects>
      <tilted>0</tilted></_>
    <_>
      <rects>
        <_>
          0 10 26 12 -1.</_>
        <_>
          0 16 26 6 2.</_></rects>
      <tilted>0</tilted></_>
    <_>
      <rects>
        <_>
          0 11 6 2 -1.</_>
        <_>
          2 11 2 2 3.</_></rects>
      <tilted>0</tilted></_>
    <_>
      <rects>
        <_>
          0 11 12 2 -1.</_>
        <_>
          4 11 4 2 3.</_></rects>
      <tilted>0</tilted></_>
    <_>
      <rects>
        <_>
          0 12 45 6 -1.</_>
        <_>
          15 12 15 6 3.</_></rects>
      <tilted>0</tilted></_>
    <_>
      <rects>
        <_>
          0 16 14 8 -1.</_>
        <_>
          7 16 7 8 2.</_></rects>
      <tilted>0</tilted></_>
    <_>
      <rects>
        <_>
          0 20 4 3 -1.</_>
        <_>
          0 21 4 1 3.</_></rects>
      <tilted>0</tilted></_>
    <_>
      <rects>
        <_>
          0 20 13 4 -1.</_>
        <_>
          0 22 13 2 2.</_></rects>
      <tilted>0</tilted></_>
    <_>
      <rects>
        <_>
          0 22 1 2 -1.</_>
        <_>
          0 23 1 1 2.</_></rects>
      <tilted>0</tilted></_>
    <_>
      <rects>
        <_>
          1 4 44 2 -1.</_>
        <_>
          1 4 22 1 2.</_>
        <_>
          23 5 22 1 2.</_></rects>
      <tilted>0</tilted></_>
    <_>
      <rects>
        <_>
          1 8 2 2 -1.</_>
        <_>
          1 8 1 1 2.</_>
        <_>
          2 9 1 1 2.</_></rects>
      <tilted>0</tilted></_>
    <_>
      <rects>
        <_>
          1 11 9 6 -1.</_>
        <_>
          4 11 3 6 3.</_></rects>
      <tilted>0</tilted></_>
    <_>
      <rects>
        <_>
          1 13 6 1 -1.</_>
        <_>
          3 13 2 1 3.</_></rects>
      <tilted>0</tilted></_>
    <_>
      <rects>
        <_>
          1 17 14 6 -1.</_>
        <_>
          1 19 14 2 3.</_></rects>
      <tilted>0</tilted></_>
    <_>
      <rects>
        <_>
          1 19 12 5 -1.</_>
        <_>
          5 19 4 5 3.</_></rects>
      <tilted>0</tilted></_>
    <_>
      <rects>
        <_>
          1 20 6 3 -1.</_>
        <_>
          1 21 6 1 3.</_></rects>
      <tilted>0</tilted></_>
    <_>
      <rects>
        <_>
          1 20 36 3 -1.</_>
        <_>
          1 21 36 1 3.</_></rects>
      <tilted>0</tilted></_>
    <_>
      <rects>
        <_>
          2 0 32 24 -1.</_>
        <_>
          18 0 16 24 2.</_></rects>
      <tilted>0</tilted></_>
    <_>
      <rects>
        <_>
          2 0 19 9 -1.</_>
        <_>
          2 3 19 3 3.</_></rects>
      <tilted>0</tilted></_>
    <_>
      <rects>
        <_>
          2 0 42 12 -1.</_>
        <_>
          2 6 42 6 2.</_></rects>
      <tilted>0</tilted></_>
    <_>
      <rects>
        <_>
          2 1 11 18 -1.</_>
        <_>
          2 7 11 6 3.</_></rects>
      <tilted>0</tilted></_>
    <_>
      <rects>
        <_>
          2 2 30 10 -1.</_>
        <_>
          2 2 15 5 2.</_>
        <_>
          17 7 15 5 2.</_></rects>
      <tilted>0</tilted></_>
    <_>
      <rects>
        <_>
          2 3 30 16 -1.</_>
        <_>
          17 3 15 16 2.</_></rects>
      <tilted>0</tilted></_>
    <_>
      <rects>
        <_>
          2 8 12 3 -1.</_>
        <_>
          6 8 4 3 3.</_></rects>
      <tilted>0</tilted></_>
    <_>
      <rects>
        <_>
          2 16 9 8 -1.</_>
        <_>
          5 16 3 8 3.</_></rects>
      <tilted>0</tilted></_>
    <_>
      <rects>
        <_>
          2 20 38 3 -1.</_>
        <_>
          2 21 38 1 3.</_></rects>
      <tilted>0</tilted></_>
    <_>
      <rects>
        <_>
          3 7 6 2 -1.</_>
        <_>
          3 7 3 1 2.</_>
        <_>
          6 8 3 1 2.</_></rects>
      <tilted>0</tilted></_>
    <_>
      <rects>
        <_>
          3 9 10 7 -1.</_>
        <_>
          8 9 5 7 2.</_></rects>
      <tilted>0</tilted></_>
    <_>
      <rects>
        <_>
          3 10 4 9 -1.</_>
        <_>
          3 13 4 3 3.</_></rects>
      <tilted>0</tilted></_>
    <_>
      <rects>
        <_>
          3 13 6 11 -1.</_>
        <_>
          5 13 2 11 3.</_></rects>
      <tilted>0</tilted></_>
    <_>
      <rects>
        <_>
          3 18 3 6 -1.</_>
        <_>
          4 18 1 6 3.</_></rects>
      <tilted>0</tilted></_>
    <_>
      <rects>
        <_>
          3 19 10 2 -1.</_>
        <_>
          3 19 5 1 2.</_>
        <_>
          8 20 5 1 2.</_></rects>
      <tilted>0</tilted></_>
    <_>
      <rects>
        <_>
          3 20 4 2 -1.</_>
        <_>
          3 20 2 1 2.</_>
        <_>
          5 21 2 1 2.</_></rects>
      <tilted>0</tilted></_>
    <_>
      <rects>
        <_>
          3 21 33 3 -1.</_>
        <_>
          3 22 33 1 3.</_></rects>
      <tilted>0</tilted></_>
    <_>
      <rects>
        <_>
          3 23 12 1 -1.</_>
        <_>
          7 23 4 1 3.</_></rects>
      <tilted>0</tilted></_>
    <_>
      <rects>
        <_>
          4 0 41 18 -1.</_>
        <_>
          4 9 41 9 2.</_></rects>
      <tilted>0</tilted></_>
    <_>
      <rects>
        <_>
          4 2 37 9 -1.</_>
        <_>
          4 5 37 3 3.</_></rects>
      <tilted>0</tilted></_>
    <_>
      <rects>
        <_>
          4 21 1 2 -1.</_>
        <_>
          4 22 1 1 2.</_></rects>
      <tilted>0</tilted></_>
    <_>
      <rects>
        <_>
          5 0 35 6 -1.</_>
        <_>
          5 3 35 3 2.</_></rects>
      <tilted>0</tilted></_>
    <_>
      <rects>
        <_>
          5 2 39 22 -1.</_>
        <_>
          18 2 13 22 3.</_></rects>
      <tilted>0</tilted></_>
    <_>
      <rects>
        <_>
          5 3 18 3 -1.</_>
        <_>
          11 3 6 3 3.</_></rects>
      <tilted>0</tilted></_>
    <_>
      <rects>
        <_>
          5 8 3 7 -1.</_>
        <_>
          6 8 1 7 3.</_></rects>
      <tilted>0</tilted></_>
    <_>
      <rects>
        <_>
          5 14 6 8 -1.</_>
        <_>
          5 14 3 4 2.</_>
        <_>
          8 18 3 4 2.</_></rects>
      <tilted>0</tilted></_>
    <_>
      <rects>
        <_>
          5 18 10 3 -1.</_>
        <_>
          5 19 10 1 3.</_></rects>
      <tilted>0</tilted></_>
    <_>
      <rects>
        <_>
          5 22 4 2 -1.</_>
        <_>
          7 22 2 2 2.</_></rects>
      <tilted>0</tilted></_>
    <_>
      <rects>
        <_>
          6 4 6 6 -1.</_>
        <_>
          6 4 3 3 2.</_>
        <_>
          9 7 3 3 2.</_></rects>
      <tilted>0</tilted></_>
    <_>
      <rects>
        <_>
          6 22 40 2 -1.</_>
        <_>
          6 23 40 1 2.</_></rects>
      <tilted>0</tilted></_>
    <_>
      <rects>
        <_>
          7 3 6 18 -1.</_>
        <_>
          7 3 3 9 2.</_>
        <_>
          10 12 3 9 2.</_></rects>
      <tilted>0</tilted></_>
    <_>
      <rects>
        <_>
          7 3 24 21 -1.</_>
        <_>
          15 3 8 21 3.</_></rects>
      <tilted>0</tilted></_>
    <_>
      <rects>
        <_>
          8 6 24 14 -1.</_>
        <_>
          20 6 12 14 2.</_></rects>
      <tilted>0</tilted></_>
    <_>
      <rects>
        <_>
          8 10 40 8 -1.</_>
        <_>
          8 10 20 4 2.</_>
        <_>
          28 14 20 4 2.</_></rects>
      <tilted>0</tilted></_>
    <_>
      <rects>
        <_>
          8 12 18 4 -1.</_>
        <_>
          8 12 9 2 2.</_>
        <_>
          17 14 9 2 2.</_></rects>
      <tilted>0</tilted></_>
    <_>
      <rects>
        <_>
          8 22 2 2 -1.</_>
        <_>
          8 22 1 1 2.</_>
        <_>
          9 23 1 1 2.</_></rects>
      <tilted>0</tilted></_>
    <_>
      <rects>
        <_>
          9 5 5 3 -1.</_>
        <_>
          9 6 5 1 3.</_></rects>
      <tilted>0</tilted></_>
    <_>
      <rects>
        <_>
          9 6 39 8 -1.</_>
        <_>
          22 6 13 8 3.</_></rects>
      <tilted>0</tilted></_>
    <_>
      <rects>
        <_>
          9 8 15 3 -1.</_>
        <_>
          14 8 5 3 3.</_></rects>
      <tilted>0</tilted></_>
    <_>
      <rects>
        <_>
          9 16 29 6 -1.</_>
        <_>
          9 18 29 2 3.</_></rects>
      <tilted>0</tilted></_>
    <_>
      <rects>
        <_>
          10 0 10 12 -1.</_>
        <_>
          10 0 5 6 2.</_>
        <_>
          15 6 5 6 2.</_></rects>
      <tilted>0</tilted></_>
    <_>
      <rects>
        <_>
          10 0 7 24 -1.</_>
        <_>
          10 8 7 8 3.</_></rects>
      <tilted>0</tilted></_>
    <_>
      <rects>
        <_>
          10 10 24 2 -1.</_>
        <_>
          22 10 12 2 2.</_></rects>
      <tilted>0</tilted></_>
    <_>
      <rects>
        <_>
          10 18 1 4 -1.</_>
        <_>
          10 20 1 2 2.</_></rects>
      <tilted>0</tilted></_>
    <_>
      <rects>
        <_>
          10 20 2 1 -1.</_>
        <_>
          11 20 1 1 2.</_></rects>
      <tilted>0</tilted></_>
    <_>
      <rects>
        <_>
          10 21 1 2 -1.</_>
        <_>
          10 22 1 1 2.</_></rects>
      <tilted>0</tilted></_>
    <_>
      <rects>
        <_>
          11 9 36 10 -1.</_>
        <_>
          23 9 12 10 3.</_></rects>
      <tilted>0</tilted></_>
    <_>
      <rects>
        <_>
          11 9 28 14 -1.</_>
        <_>
          11 9 14 7 2.</_>
        <_>
          25 16 14 7 2.</_></rects>
      <tilted>0</tilted></_>
    <_>
      <rects>
        <_>
          11 11 3 6 -1.</_>
        <_>
          12 11 1 6 3.</_></rects>
      <tilted>0</tilted></_>
    <_>
      <rects>
        <_>
          11 15 3 1 -1.</_>
        <_>
          12 15 1 1 3.</_></rects>
      <tilted>0</tilted></_>
    <_>
      <rects>
        <_>
          12 1 2 2 -1.</_>
        <_>
          13 1 1 2 2.</_></rects>
      <tilted>0</tilted></_>
    <_>
      <rects>
        <_>
          12 3 15 8 -1.</_>
        <_>
          17 3 5 8 3.</_></rects>
      <tilted>0</tilted></_>
    <_>
      <rects>
        <_>
          12 5 26 10 -1.</_>
        <_>
          25 5 13 10 2.</_></rects>
      <tilted>0</tilted></_>
    <_>
      <rects>
        <_>
          12 10 11 6 -1.</_>
        <_>
          12 12 11 2 3.</_></rects>
      <tilted>0</tilted></_>
    <_>
      <rects>
        <_>
          12 18 2 2 -1.</_>
        <_>
          12 18 1 1 2.</_>
        <_>
          13 19 1 1 2.</_></rects>
      <tilted>0</tilted></_>
    <_>
      <rects>
        <_>
          13 6 11 6 -1.</_>
        <_>
          13 9 11 3 2.</_></rects>
      <tilted>0</tilted></_>
    <_>
      <rects>
        <_>
          13 8 21 14 -1.</_>
        <_>
          13 15 21 7 2.</_></rects>
      <tilted>0</tilted></_>
    <_>
      <rects>
        <_>
          13 9 4 4 -1.</_>
        <_>
          13 11 4 2 2.</_></rects>
      <tilted>0</tilted></_>
    <_>
      <rects>
        <_>
          13 10 15 4 -1.</_>
        <_>
          18 10 5 4 3.</_></rects>
      <tilted>0</tilted></_>
    <_>
      <rects>
        <_>
          14 0 1 2 -1.</_>
        <_>
          14 1 1 1 2.</_></rects>
      <tilted>0</tilted></_>
    <_>
      <rects>
        <_>
          14 1 30 4 -1.</_>
        <_>
          24 1 10 4 3.</_></rects>
      <tilted>0</tilted></_>
    <_>
      <rects>
        <_>
          14 5 15 12 -1.</_>
        <_>
          19 5 5 12 3.</_></rects>
      <tilted>0</tilted></_>
    <_>
      <rects>
        <_>
          14 8 4 8 -1.</_>
        <_>
          16 8 2 8 2.</_></rects>
      <tilted>0</tilted></_>
    <_>
      <rects>
        <_>
          14 11 8 3 -1.</_>
        <_>
          18 11 4 3 2.</_></rects>
      <tilted>0</tilted></_>
    <_>
      <rects>
        <_>
          14 13 12 3 -1.</_>
        <_>
          18 13 4 3 3.</_></rects>
      <tilted>0</tilted></_>
    <_>
      <rects>
        <_>
          14 13 10 6 -1.</_>
        <_>
          14 15 10 2 3.</_></rects>
      <tilted>0</tilted></_>
    <_>
      <rects>
        <_>
          14 16 12 5 -1.</_>
        <_>
          18 16 4 5 3.</_></rects>
      <tilted>0</tilted></_>
    <_>
      <rects>
        <_>
          14 20 1 2 -1.</_>
        <_>
          14 21 1 1 2.</_></rects>
      <tilted>0</tilted></_>
    <_>
      <rects>
        <_>
          14 20 8 4 -1.</_>
        <_>
          14 20 4 2 2.</_>
        <_>
          18 22 4 2 2.</_></rects>
      <tilted>0</tilted></_>
    <_>
      <rects>
        <_>
          14 23 9 1 -1.</_>
        <_>
          17 23 3 1 3.</_></rects>
      <tilted>0</tilted></_>
    <_>
      <rects>
        <_>
          15 0 30 10 -1.</_>
        <_>
          25 0 10 10 3.</_></rects>
      <tilted>0</tilted></_>
    <_>
      <rects>
        <_>
          15 1 22 12 -1.</_>
        <_>
          15 5 22 4 3.</_></rects>
      <tilted>0</tilted></_>
    <_>
      <rects>
        <_>
          15 1 25 12 -1.</_>
        <_>
          15 5 25 4 3.</_></rects>
      <tilted>0</tilted></_>
    <_>
      <rects>
        <_>
          15 14 2 10 -1.</_>
        <_>
          15 14 1 5 2.</_>
        <_>
          16 19 1 5 2.</_></rects>
      <tilted>0</tilted></_>
    <_>
      <rects>
        <_>
          15 15 1 2 -1.</_>
        <_>
          15 16 1 1 2.</_></rects>
      <tilted>0</tilted></_>
    <_>
      <rects>
        <_>
          15 17 24 1 -1.</_>
        <_>
          23 17 8 1 3.</_></rects>
      <tilted>0</tilted></_>
    <_>
      <rects>
        <_>
          16 0 20 15 -1.</_>
        <_>
          16 5 20 5 3.</_></rects>
      <tilted>0</tilted></_>
    <_>
      <rects>
        <_>
          16 1 13 10 -1.</_>
        <_>
          16 6 13 5 2.</_></rects>
      <tilted>0</tilted></_>
    <_>
      <rects>
        <_>
          16 1 30 16 -1.</_>
        <_>
          16 9 30 8 2.</_></rects>
      <tilted>0</tilted></_>
    <_>
      <rects>
        <_>
          16 2 32 20 -1.</_>
        <_>
          16 2 16 10 2.</_>
        <_>
          32 12 16 10 2.</_></rects>
      <tilted>0</tilted></_>
    <_>
      <rects>
        <_>
          16 5 4 7 -1.</_>
        <_>
          18 5 2 7 2.</_></rects>
      <tilted>0</tilted></_>
    <_>
      <rects>
        <_>
          16 9 2 2 -1.</_>
        <_>
          16 9 1 1 2.</_>
        <_>
          17 10 1 1 2.</_></rects>
      <tilted>0</tilted></_>
    <_>
      <rects>
        <_>
          16 12 14 9 -1.</_>
        <_>
          16 15 14 3 3.</_></rects>
      <tilted>0</tilted></_>
    <_>
      <rects>
        <_>
          16 16 24 4 -1.</_>
        <_>
          16 18 24 2 2.</_></rects>
      <tilted>0</tilted></_>
    <_>
      <rects>
        <_>
          16 20 22 4 -1.</_>
        <_>
          27 20 11 4 2.</_></rects>
      <tilted>0</tilted></_>
    <_>
      <rects>
        <_>
          17 0 4 12 -1.</_>
        <_>
          19 0 2 12 2.</_></rects>
      <tilted>0</tilted></_>
    <_>
      <rects>
        <_>
          17 0 6 22 -1.</_>
        <_>
          19 0 2 22 3.</_></rects>
      <tilted>0</tilted></_>
    <_>
      <rects>
        <_>
          17 2 2 4 -1.</_>
        <_>
          18 2 1 4 2.</_></rects>
      <tilted>0</tilted></_>
    <_>
      <rects>
        <_>
          17 2 2 3 -1.</_>
        <_>
          17 3 2 1 3.</_></rects>
      <tilted>0</tilted></_>
    <_>
      <rects>
        <_>
          17 3 10 21 -1.</_>
        <_>
          17 10 10 7 3.</_></rects>
      <tilted>0</tilted></_>
    <_>
      <rects>
        <_>
          17 9 22 12 -1.</_>
        <_>
          17 9 11 6 2.</_>
        <_>
          28 15 11 6 2.</_></rects>
      <tilted>0</tilted></_>
    <_>
      <rects>
        <_>
          17 10 4 4 -1.</_>
        <_>
          17 12 4 2 2.</_></rects>
      <tilted>0</tilted></_>
    <_>
      <rects>
        <_>
          17 10 24 7 -1.</_>
        <_>
          29 10 12 7 2.</_></rects>
      <tilted>0</tilted></_>
    <_>
      <rects>
        <_>
          17 18 7 3 -1.</_>
        <_>
          17 19 7 1 3.</_></rects>
      <tilted>0</tilted></_>
    <_>
      <rects>
        <_>
          17 21 18 3 -1.</_>
        <_>
          17 22 18 1 3.</_></rects>
      <tilted>0</tilted></_>
    <_>
      <rects>
        <_>
          18 0 1 2 -1.</_>
        <_>
          18 1 1 1 2.</_></rects>
      <tilted>0</tilted></_>
    <_>
      <rects>
        <_>
          18 0 2 2 -1.</_>
        <_>
          18 0 1 1 2.</_>
        <_>
          19 1 1 1 2.</_></rects>
      <tilted>0</tilted></_>
    <_>
      <rects>
        <_>
          18 2 10 3 -1.</_>
        <_>
          18 3 10 1 3.</_></rects>
      <tilted>0</tilted></_>
    <_>
      <rects>
        <_>
          18 4 1 9 -1.</_>
        <_>
          18 7 1 3 3.</_></rects>
      <tilted>0</tilted></_>
    <_>
      <rects>
        <_>
          18 4 14 6 -1.</_>
        <_>
          18 6 14 2 3.</_></rects>
      <tilted>0</tilted></_>
    <_>
      <rects>
        <_>
          18 7 18 11 -1.</_>
        <_>
          24 7 6 11 3.</_></rects>
      <tilted>0</tilted></_>
    <_>
      <rects>
        <_>
          18 8 30 5 -1.</_>
        <_>
          28 8 10 5 3.</_></rects>
      <tilted>0</tilted></_>
    <_>
      <rects>
        <_>
          18 8 22 6 -1.</_>
        <_>
          29 8 11 6 2.</_></rects>
      <tilted>0</tilted></_>
    <_>
      <rects>
        <_>
          19 0 25 3 -1.</_>
        <_>
          19 1 25 1 3.</_></rects>
      <tilted>0</tilted></_>
    <_>
      <rects>
        <_>
          19 3 29 6 -1.</_>
        <_>
          19 6 29 3 2.</_></rects>
      <tilted>0</tilted></_>
    <_>
      <rects>
        <_>
          19 6 1 2 -1.</_>
        <_>
          19 7 1 1 2.</_></rects>
      <tilted>0</tilted></_>
    <_>
      <rects>
        <_>
          19 8 1 2 -1.</_>
        <_>
          19 9 1 1 2.</_></rects>
      <tilted>0</tilted></_>
    <_>
      <rects>
        <_>
          19 10 2 1 -1.</_>
        <_>
          20 10 1 1 2.</_></rects>
      <tilted>0</tilted></_>
    <_>
      <rects>
        <_>
          19 17 10 6 -1.</_>
        <_>
          19 19 10 2 3.</_></rects>
      <tilted>0</tilted></_>
    <_>
      <rects>
        <_>
          19 18 18 6 -1.</_>
        <_>
          19 21 18 3 2.</_></rects>
      <tilted>0</tilted></_>
    <_>
      <rects>
        <_>
          20 0 3 1 -1.</_>
        <_>
          21 0 1 1 3.</_></rects>
      <tilted>0</tilted></_>
    <_>
      <rects>
        <_>
          20 0 25 8 -1.</_>
        <_>
          20 4 25 4 2.</_></rects>
      <tilted>0</tilted></_>
    <_>
      <rects>
        <_>
          20 3 17 3 -1.</_>
        <_>
          20 4 17 1 3.</_></rects>
      <tilted>0</tilted></_>
    <_>
      <rects>
        <_>
          20 5 18 8 -1.</_>
        <_>
          20 5 9 4 2.</_>
        <_>
          29 9 9 4 2.</_></rects>
      <tilted>0</tilted></_>
    <_>
      <rects>
        <_>
          20 10 15 10 -1.</_>
        <_>
          25 10 5 10 3.</_></rects>
      <tilted>0</tilted></_>
    <_>
      <rects>
        <_>
          20 15 3 8 -1.</_>
        <_>
          21 15 1 8 3.</_></rects>
      <tilted>0</tilted></_>
    <_>
      <rects>
        <_>
          21 1 2 2 -1.</_>
        <_>
          22 1 1 2 2.</_></rects>
      <tilted>0</tilted></_>
    <_>
      <rects>
        <_>
          21 6 24 7 -1.</_>
        <_>
          29 6 8 7 3.</_></rects>
      <tilted>0</tilted></_>
    <_>
      <rects>
        <_>
          21 8 9 11 -1.</_>
        <_>
          24 8 3 11 3.</_></rects>
      <tilted>0</tilted></_>
    <_>
      <rects>
        <_>
          21 14 3 2 -1.</_>
        <_>
          22 14 1 2 3.</_></rects>
      <tilted>0</tilted></_>
    <_>
      <rects>
        <_>
          22 4 9 12 -1.</_>
        <_>
          25 4 3 12 3.</_></rects>
      <tilted>0</tilted></_>
    <_>
      <rects>
        <_>
          22 9 3 6 -1.</_>
        <_>
          22 12 3 3 2.</_></rects>
      <tilted>0</tilted></_>
    <_>
      <rects>
        <_>
          22 14 3 6 -1.</_>
        <_>
          22 17 3 3 2.</_></rects>
      <tilted>0</tilted></_>
    <_>
      <rects>
        <_>
          22 14 10 2 -1.</_>
        <_>
          22 14 5 1 2.</_>
        <_>
          27 15 5 1 2.</_></rects>
      <tilted>0</tilted></_>
    <_>
      <rects>
        <_>
          23 0 4 24 -1.</_>
        <_>
          23 12 4 12 2.</_></rects>
      <tilted>0</tilted></_>
    <_>
      <rects>
        <_>
          23 22 20 2 -1.</_>
        <_>
          23 22 10 1 2.</_>
        <_>
          33 23 10 1 2.</_></rects>
      <tilted>0</tilted></_>
    <_>
      <rects>
        <_>
          24 4 2 6 -1.</_>
        <_>
          24 6 2 2 3.</_></rects>
      <tilted>0</tilted></_>
    <_>
      <rects>
        <_>
          25 0 23 20 -1.</_>
        <_>
          25 10 23 10 2.</_></rects>
      <tilted>0</tilted></_>
    <_>
      <rects>
        <_>
          25 3 6 15 -1.</_>
        <_>
          27 3 2 15 3.</_></rects>
      <tilted>0</tilted></_>
    <_>
      <rects>
        <_>
          25 5 2 2 -1.</_>
        <_>
          25 5 1 1 2.</_>
        <_>
          26 6 1 1 2.</_></rects>
      <tilted>0</tilted></_>
    <_>
      <rects>
        <_>
          25 6 2 12 -1.</_>
        <_>
          25 12 2 6 2.</_></rects>
      <tilted>0</tilted></_>
    <_>
      <rects>
        <_>
          25 8 18 6 -1.</_>
        <_>
          31 8 6 6 3.</_></rects>
      <tilted>0</tilted></_>
    <_>
      <rects>
        <_>
          25 19 18 2 -1.</_>
        <_>
          31 19 6 2 3.</_></rects>
      <tilted>0</tilted></_>
    <_>
      <rects>
        <_>
          26 0 2 14 -1.</_>
        <_>
          27 0 1 14 2.</_></rects>
      <tilted>0</tilted></_>
    <_>
      <rects>
        <_>
          26 0 4 2 -1.</_>
        <_>
          26 0 2 1 2.</_>
        <_>
          28 1 2 1 2.</_></rects>
      <tilted>0</tilted></_>
    <_>
      <rects>
        <_>
          26 4 3 2 -1.</_>
        <_>
          27 4 1 2 3.</_></rects>
      <tilted>0</tilted></_>
    <_>
      <rects>
        <_>
          26 11 3 2 -1.</_>
        <_>
          27 11 1 2 3.</_></rects>
      <tilted>0</tilted></_>
    <_>
      <rects>
        <_>
          26 13 3 3 -1.</_>
        <_>
          26 14 3 1 3.</_></rects>
      <tilted>0</tilted></_>
    <_>
      <rects>
        <_>
          26 20 18 3 -1.</_>
        <_>
          26 21 18 1 3.</_></rects>
      <tilted>0</tilted></_>
    <_>
      <rects>
        <_>
          27 3 7 21 -1.</_>
        <_>
          27 10 7 7 3.</_></rects>
      <tilted>0</tilted></_>
    <_>
      <rects>
        <_>
          28 10 9 3 -1.</_>
        <_>
          31 10 3 3 3.</_></rects>
      <tilted>0</tilted></_>
    <_>
      <rects>
        <_>
          29 5 9 6 -1.</_>
        <_>
          32 5 3 6 3.</_></rects>
      <tilted>0</tilted></_>
    <_>
      <rects>
        <_>
          29 7 3 1 -1.</_>
        <_>
          30 7 1 1 3.</_></rects>
      <tilted>0</tilted></_>
    <_>
      <rects>
        <_>
          29 10 2 6 -1.</_>
        <_>
          29 13 2 3 2.</_></rects>
      <tilted>0</tilted></_>
    <_>
      <rects>
        <_>
          30 13 1 3 -1.</_>
        <_>
          30 14 1 1 3.</_></rects>
      <tilted>0</tilted></_>
    <_>
      <rects>
        <_>
          30 18 12 6 -1.</_>
        <_>
          34 18 4 6 3.</_></rects>
      <tilted>0</tilted></_>
    <_>
      <rects>
        <_>
          30 22 6 2 -1.</_>
        <_>
          32 22 2 2 3.</_></rects>
      <tilted>0</tilted></_>
    <_>
      <rects>
        <_>
          31 1 6 3 -1.</_>
        <_>
          34 1 3 3 2.</_></rects>
      <tilted>0</tilted></_>
    <_>
      <rects>
        <_>
          31 1 12 6 -1.</_>
        <_>
          31 3 12 2 3.</_></rects>
      <tilted>0</tilted></_>
    <_>
      <rects>
        <_>
          31 17 2 1 -1.</_>
        <_>
          32 17 1 1 2.</_></rects>
      <tilted>0</tilted></_>
    <_>
      <rects>
        <_>
          32 3 2 1 -1.</_>
        <_>
          33 3 1 1 2.</_></rects>
      <tilted>0</tilted></_>
    <_>
      <rects>
        <_>
          32 4 13 4 -1.</_>
        <_>
          32 6 13 2 2.</_></rects>
      <tilted>0</tilted></_>
    <_>
      <rects>
        <_>
          32 5 8 14 -1.</_>
        <_>
          32 5 4 7 2.</_>
        <_>
          36 12 4 7 2.</_></rects>
      <tilted>0</tilted></_>
    <_>
      <rects>
        <_>
          33 0 2 19 -1.</_>
        <_>
          34 0 1 19 2.</_></rects>
      <tilted>0</tilted></_>
    <_>
      <rects>
        <_>
          33 1 12 8 -1.</_>
        <_>
          33 1 6 4 2.</_>
        <_>
          39 5 6 4 2.</_></rects>
      <tilted>0</tilted></_>
    <_>
      <rects>
        <_>
          33 21 12 3 -1.</_>
        <_>
          37 21 4 3 3.</_></rects>
      <tilted>0</tilted></_>
    <_>
      <rects>
        <_>
          34 0 3 3 -1.</_>
        <_>
          35 0 1 3 3.</_></rects>
      <tilted>0</tilted></_>
    <_>
      <rects>
        <_>
          34 10 14 10 -1.</_>
        <_>
          34 10 7 5 2.</_>
        <_>
          41 15 7 5 2.</_></rects>
      <tilted>0</tilted></_>
    <_>
      <rects>
        <_>
          34 14 14 8 -1.</_>
        <_>
          34 14 7 4 2.</_>
        <_>
          41 18 7 4 2.</_></rects>
      <tilted>0</tilted></_>
    <_>
      <rects>
        <_>
          34 19 3 3 -1.</_>
        <_>
          35 19 1 3 3.</_></rects>
      <tilted>0</tilted></_>
    <_>
      <rects>
        <_>
          35 0 12 15 -1.</_>
        <_>
          39 0 4 15 3.</_></rects>
      <tilted>0</tilted></_>
    <_>
      <rects>
        <_>
          35 11 2 1 -1.</_>
        <_>
          36 11 1 1 2.</_></rects>
      <tilted>0</tilted></_>
    <_>
      <rects>
        <_>
          36 0 3 6 -1.</_>
        <_>
          37 0 1 6 3.</_></rects>
      <tilted>0</tilted></_>
    <_>
      <rects>
        <_>
          36 0 4 9 -1.</_>
        <_>
          36 3 4 3 3.</_></rects>
      <tilted>0</tilted></_>
    <_>
      <rects>
        <_>
          36 0 5 9 -1.</_>
        <_>
          36 3 5 3 3.</_></rects>
      <tilted>0</tilted></_>
    <_>
      <rects>
        <_>
          36 4 6 12 -1.</_>
        <_>
          36 8 6 4 3.</_></rects>
      <tilted>0</tilted></_>
    <_>
      <rects>
        <_>
          36 8 2 2 -1.</_>
        <_>
          36 8 1 1 2.</_>
        <_>
          37 9 1 1 2.</_></rects>
      <tilted>0</tilted></_>
    <_>
      <rects>
        <_>
          36 17 6 6 -1.</_>
        <_>
          36 17 3 3 2.</_>
        <_>
          39 20 3 3 2.</_></rects>
      <tilted>0</tilted></_>
    <_>
      <rects>
        <_>
          37 0 3 1 -1.</_>
        <_>
          38 0 1 1 3.</_></rects>
      <tilted>0</tilted></_>
    <_>
      <rects>
        <_>
          37 19 4 4 -1.</_>
        <_>
          39 19 2 4 2.</_></rects>
      <tilted>0</tilted></_>
    <_>
      <rects>
        <_>
          38 3 3 1 -1.</_>
        <_>
          39 3 1 1 3.</_></rects>
      <tilted>0</tilted></_>
    <_>
      <rects>
        <_>
          38 9 2 2 -1.</_>
        <_>
          38 9 1 1 2.</_>
        <_>
          39 10 1 1 2.</_></rects>
      <tilted>0</tilted></_>
    <_>
      <rects>
        <_>
          39 1 2 12 -1.</_>
        <_>
          39 1 1 6 2.</_>
        <_>
          40 7 1 6 2.</_></rects>
      <tilted>0</tilted></_>
    <_>
      <rects>
        <_>
          39 3 6 9 -1.</_>
        <_>
          42 3 3 9 2.</_></rects>
      <tilted>0</tilted></_>
    <_>
      <rects>
        <_>
          39 10 2 1 -1.</_>
        <_>
          40 10 1 1 2.</_></rects>
      <tilted>0</tilted></_>
    <_>
      <rects>
        <_>
          40 1 1 15 -1.</_>
        <_>
          40 6 1 5 3.</_></rects>
      <tilted>0</tilted></_>
    <_>
      <rects>
        <_>
          40 4 2 2 -1.</_>
        <_>
          40 4 1 1 2.</_>
        <_>
          41 5 1 1 2.</_></rects>
      <tilted>0</tilted></_>
    <_>
      <rects>
        <_>
          40 10 3 4 -1.</_>
        <_>
          41 10 1 4 3.</_></rects>
      <tilted>0</tilted></_>
    <_>
      <rects>
        <_>
          40 15 3 9 -1.</_>
        <_>
          40 18 3 3 3.</_></rects>
      <tilted>0</tilted></_>
    <_>
      <rects>
        <_>
          40 20 3 4 -1.</_>
        <_>
          41 20 1 4 3.</_></rects>
      <tilted>0</tilted></_>
    <_>
      <rects>
        <_>
          41 22 6 2 -1.</_>
        <_>
          43 22 2 2 3.</_></rects>
      <tilted>0</tilted></_>
    <_>
      <rects>
        <_>
          42 2 2 6 -1.</_>
        <_>
          42 4 2 2 3.</_></rects>
      <tilted>0</tilted></_>
    <_>
      <rects>
        <_>
          42 8 4 12 -1.</_>
        <_>
          42 14 4 6 2.</_></rects>
      <tilted>0</tilted></_>
    <_>
      <rects>
        <_>
          42 8 6 15 -1.</_>
        <_>
          42 13 6 5 3.</_></rects>
      <tilted>0</tilted></_>
    <_>
      <rects>
        <_>
          42 22 1 2 -1.</_>
        <_>
          42 23 1 1 2.</_></rects>
      <tilted>0</tilted></_>
    <_>
      <rects>
        <_>
          44 0 3 2 -1.</_>
        <_>
          45 0 1 2 3.</_></rects>
      <tilted>0</tilted></_>
    <_>
      <rects>
        <_>
          44 8 1 3 -1.</_>
        <_>
          44 9 1 1 3.</_></rects>
      <tilted>0</tilted></_>
    <_>
      <rects>
        <_>
          44 14 1 6 -1.</_>
        <_>
          44 16 1 2 3.</_></rects>
      <tilted>0</tilted></_>
    <_>
      <rects>
        <_>
          44 15 1 3 -1.</_>
        <_>
          44 16 1 1 3.</_></rects>
      <tilted>0</tilted></_>
    <_>
      <rects>
        <_>
          45 1 3 4 -1.</_>
        <_>
          45 3 3 2 2.</_></rects>
      <tilted>0</tilted></_>
    <_>
      <rects>
        <_>
          46 0 2 4 -1.</_>
        <_>
          46 0 1 2 2.</_>
        <_>
          47 2 1 2 2.</_></rects>
      <tilted>0</tilted></_></features></cascade>
</opencv_storage>
